{"layer":[3,25,25,1],"layers":[{"numberOfInputs":3,"numberOfOutputs":25,"inputs":[1.0,1.0,1.0],"weights":[[-0.14838694,-0.383706957,0.0149030648],[0.451821834,0.281156272,-0.367887527],[-0.251113832,0.1157606,-0.2342391],[-0.403065681,0.461519837,0.198120192],[0.247985616,0.323056519,0.0231763981],[0.196214944,-0.317246854,0.0403056629],[0.292182356,-0.3122746,-0.0235259477],[0.414037555,-0.3118331,0.207986251],[-0.248704553,-0.064617224,-0.373679549],[-0.3826363,0.2783497,-0.127625182],[-0.5227526,0.0810452849,0.0875938758],[-0.336296529,-0.214046612,0.03524537],[-0.316171616,0.171926111,-0.02919761],[-0.197436556,-0.114138849,0.180455148],[0.429312259,-0.133913025,-0.126727432],[0.07800116,-0.09049059,0.3786386],[-0.321079671,0.306827873,-0.201281488],[-0.334934115,0.363231331,-0.372148871],[-0.193108872,-0.09083194,0.429323763],[0.3163356,0.242922232,-0.156338766],[0.419095963,-0.409491,0.4228438],[0.4375415,-0.376502037,-0.0300648846],[-0.381258249,0.07048643,0.0471514426],[0.452151,-0.00437300745,0.04381184],[-0.424571216,-0.04472268,0.2558011]],"weightsDelta":[[0.02487464,0.02487464,0.02487464],[0.0143531384,0.0143531384,0.0143531384],[0.0913424641,0.0913424641,0.0913424641],[-0.0624843538,-0.0624843538,-0.0624843538],[0.004166593,0.004166593,0.004166593],[-0.00346126058,-0.00346126058,-0.00346126058],[-0.03638829,-0.03638829,-0.03638829],[0.111997262,0.111997262,0.111997262],[0.0420333035,0.0420333035,0.0420333035],[-0.07975851,-0.07975851,-0.07975851],[-0.08392715,-0.08392715,-0.08392715],[0.00475223875,0.00475223875,0.00475223875],[0.02383916,0.02383916,0.02383916],[0.02714819,0.02714819,0.02714819],[0.0512987934,0.0512987934,0.0512987934],[-0.04586977,-0.04586977,-0.04586977],[0.00404081866,0.00404081866,0.00404081866],[0.09892474,0.09892474,0.09892474],[0.06363109,0.06363109,0.06363109],[-0.02977926,-0.02977926,-0.02977926],[-0.008062563,-0.008062563,-0.008062563],[-0.05160722,-0.05160722,-0.05160722],[0.03774713,0.03774713,0.03774713],[-0.02921378,-0.02921378,-0.02921378],[0.0546218939,0.0546218939,0.0546218939]],"outputs":[-0.475528955,0.34969005,-0.353635073,0.251088619,0.5329228,-0.08055135,-0.0435905531,0.300610542,-0.59605217,-0.22784169,-0.340018481,-0.47390762,-0.171724588,-0.13037397,0.167090237,0.350618839,-0.212256655,-0.330911636,0.144367248,0.382443845,0.407365739,0.0309646912,-0.257678658,0.455477327,-0.21030724],"gamma":[0.02487464,0.0143531384,0.0913424641,-0.0624843538,0.004166593,-0.00346126058,-0.03638829,0.111997262,0.0420333035,-0.07975851,-0.08392715,0.00475223875,0.02383916,0.02714819,0.0512987934,-0.04586977,0.00404081866,0.09892474,0.06363109,-0.02977926,-0.008062563,-0.05160722,0.03774713,-0.02921378,0.0546218939],"error":[0.0,0.0,0.0,0.0,0.0,0.0,0.0,0.0,0.0,0.0,0.0,0.0,0.0,0.0,0.0,0.0,0.0,0.0,0.0,0.0,0.0,0.0,0.0,0.0,0.0]},{"numberOfInputs":25,"numberOfOutputs":25,"inputs":[-0.475528955,0.34969005,-0.353635073,0.251088619,0.5329228,-0.08055135,-0.0435905531,0.300610542,-0.59605217,-0.22784169,-0.340018481,-0.47390762,-0.171724588,-0.13037397,0.167090237,0.350618839,-0.212256655,-0.330911636,0.144367248,0.382443845,0.407365739,0.0309646912,-0.257678658,0.455477327,-0.21030724],"weights":[[0.275697976,-0.496453077,0.274475724,-0.106124766,0.16570881,-0.435247064,-0.163628384,0.464226931,0.417568237,-0.424804062,0.3274776,0.190793067,-0.1652861,0.38078928,0.328659236,0.08394609,-0.08928399,0.4695802,-0.359594643,-0.1098813,-0.192445591,0.248918027,0.426886261,-0.236878738,0.49611938],[-0.08439834,0.338446856,-0.219699875,-0.288596481,-0.141052574,0.248226389,-0.4259582,-0.12165954,-0.0832112,0.0221767426,-0.0352558233,-0.330871731,-0.117358312,-0.422782183,-0.223503619,0.113216095,-0.3520144,0.4846665,0.3879213,-0.174703658,0.219143584,0.316470146,0.16952616,0.22401,-0.08032325],[-0.437491149,0.0359349325,0.4644438,-0.436759472,-0.05923604,-0.47215727,-0.4244798,0.015675135,-0.1085977,-0.2589478,-0.270700037,-0.442987353,0.265258819,0.06937786,-0.17499049,0.2481766,-0.18307142,0.408343375,-0.14016068,-0.130553365,-0.0880000144,-0.467787653,0.396226436,0.355415881,0.279283971],[-0.3457692,0.2624929,-0.456936181,0.448310167,-0.213513613,0.09302867,-0.334124684,0.0594305731,0.27777192,-0.2082409,-0.2801981,-0.384536415,-0.183438644,0.4863627,-0.01288167,-0.1115757,0.154124185,0.480754733,0.33815524,-0.447766751,0.06187648,-0.124485619,-0.0746679157,0.0536357239,0.0834239647],[-0.1076377,0.40242365,-0.1840796,-0.132597879,-0.498959631,-0.480541,0.1285631,-0.4099019,-0.207489088,-0.198783323,-0.222601429,-0.462602139,0.08789369,-0.389201283,0.137873352,-0.445890337,0.01738549,0.5014865,-0.218118861,-0.3937627,0.106438614,-0.5087513,0.435293317,0.353304654,0.4936245],[0.235885248,-0.432203531,-0.415143877,0.328751236,-0.261092931,0.248283133,-0.18126975,-0.04612657,-0.125019088,0.418167263,0.189550623,0.358632654,-0.281324744,0.269780219,-0.2493273,0.0509521328,-0.463171422,-0.434601367,0.179413974,-0.257252842,-0.187263057,-0.448502868,0.3879996,-0.326799929,0.49095723],[-0.46416837,-0.0821439,-0.364363641,-0.03255904,0.463980168,-0.11575482,0.481107146,-0.0496326946,-0.148672119,-0.252299845,0.4827763,0.0633295551,-0.190165162,-0.445205361,0.01058535,0.430101663,0.0385276973,-0.29434678,-0.280450821,0.4816169,-0.2872586,-0.210465327,-0.2974458,-0.476436168,0.0360514671],[0.126536235,0.481519073,-0.269733,0.127196863,0.130062178,0.174399212,-0.330305338,0.374701738,0.311432,-0.324078441,-0.135409683,-0.302665055,-0.461424619,-0.0886067152,0.008170704,0.183113471,-0.07499377,0.333732277,0.0206031334,-0.220594466,0.489750981,0.202605262,0.467561066,-0.313408047,-0.199926734],[0.319421977,0.347135037,0.16359961,-0.300485462,0.289457083,0.253569782,-0.295100331,-0.378193,0.418453246,-0.181761876,-0.0892977,0.269523442,0.303479731,0.243141741,0.08032044,0.317254752,0.202109084,0.008239544,0.383279473,-0.362441272,0.21159099,0.0129912505,0.301266044,0.212978467,-0.217096165],[0.268174231,-0.01878761,0.175860927,0.25467515,0.04653403,0.429210037,-0.501054347,-0.451365232,-0.176711842,0.320379466,0.318418056,0.00240232144,0.16698958,-0.493582845,-0.0825405344,-0.32816866,-0.430258632,-0.374064356,-0.401997566,-0.406591326,0.4385837,0.104880475,-0.4083374,0.448530436,-0.0387475453],[-0.192330509,-0.3232884,-0.4141678,-0.480867922,0.0710035339,-0.186548024,-0.4300089,0.448981047,0.4372249,-0.475829452,-0.225885451,0.029103905,-0.12081743,-0.129370213,-0.105715357,-0.08951144,0.213595733,-0.0231440142,0.4264605,0.254160762,-0.190433979,-0.44764635,-0.007838123,-0.0401720963,0.474547863],[0.160439059,-0.154030249,0.199176177,0.123164661,-0.152514979,-0.3399853,-0.1137144,0.2277388,-0.222030357,-0.258797377,0.241423666,0.424738735,-0.494352221,0.2555363,0.00748236943,0.265781641,0.0524093881,0.2213592,0.49430275,-0.366745621,0.155183271,0.1864517,0.269140482,0.205912217,0.197837517],[-0.290780246,-0.3626284,-0.341351628,-0.2971326,-0.3522024,-0.235745668,0.195983127,0.1459296,-0.448878437,0.424051851,0.4408207,-0.1465079,-0.17550844,0.08257022,0.365426362,0.4043846,0.286137819,-0.414550722,-0.3645397,0.149671808,0.015550225,0.20398131,0.235271141,-0.0933095142,-0.4823997],[0.2584095,-0.162588865,0.0143314125,-0.242417648,-0.175246879,0.482161373,0.138948828,0.5110762,0.447509527,-0.375428021,-0.5220094,-0.2946849,0.007994833,-0.379197121,0.524409235,-0.475956619,-0.2294495,0.438038141,0.283339441,0.09313457,-0.09836338,-0.217204675,-0.37773,-0.3670386,-0.287006348],[0.3521169,0.07809658,0.144033074,-0.4451325,-0.308238775,-0.004441304,-0.0934540853,0.25159955,-0.314668149,-0.108257458,0.452977657,-0.3184791,-0.17818822,0.239768893,0.4660105,-0.17215082,-0.135093048,-0.107827827,-0.07069948,0.3537191,0.163410187,-0.236173019,0.465577841,-0.3616687,0.116077609],[-0.28797552,0.262111455,0.419403136,0.323684365,0.101441167,0.02163686,-0.342254579,-0.0885539949,-0.432669431,-0.02391635,-0.115261957,0.47089377,0.436617851,0.245311767,0.150586888,0.108243331,-0.0358313359,-0.138634309,0.249766484,-0.473179877,0.3472761,0.4665365,-0.2981182,0.346867055,-0.252807379],[-0.457009226,0.34066388,0.222411379,-0.25116238,0.07358734,0.08773461,0.116068132,-0.00163241837,-0.0574549325,0.489985764,0.2308891,-0.00563651975,0.428475946,0.07373206,0.36344105,0.299294263,0.264312625,-0.236894429,-0.227953911,0.0773459151,-0.137939647,-0.0786446258,0.1424485,0.277484238,-0.25132063],[-0.29688713,0.433309585,-0.2773562,-0.381089,0.270491958,-0.264405817,0.0618955381,-0.441123366,0.08864593,0.07583925,0.169294447,-0.07574042,-0.327300966,-0.0270679537,0.386562169,0.2527665,-0.0265689269,0.006178483,0.2380198,0.435273528,-0.3875108,0.0250845347,0.283447534,0.385399759,-0.275655329],[-0.397336185,0.188822836,0.432365865,-0.254123,0.370559484,0.123652644,-0.27781868,0.443279237,-0.489343047,-0.142556131,0.173447132,-0.09235674,-0.115543284,0.182624713,0.254037917,-0.3406272,-0.0786544,-0.157420978,-0.4976767,-0.310800284,-0.1413969,0.111763813,0.274225354,-0.115112267,0.312477857],[0.3995095,0.427161872,0.382384926,0.3629538,-0.3749346,0.1804424,-0.378569841,-0.169573754,0.3703888,0.166367948,0.0431679375,0.133452728,0.2991091,0.20502077,0.4500752,-0.03671845,-0.00921793,-0.337836921,-0.3778119,-0.294377565,-0.1345854,-0.43067503,0.313828856,-0.488352776,0.265758932],[0.201360628,-0.3174206,0.2831988,0.182225943,0.365022928,0.000242937123,0.424558461,0.05205696,-0.0435661636,0.479559779,0.189623266,-0.169098809,-0.4181957,0.383416325,0.182776734,0.0575283729,-0.426622123,0.0209197,-0.481681883,-0.302044868,0.0182772484,0.130658939,0.137599379,-0.451314718,0.235322177],[0.371233523,-0.0599572025,0.157553136,-0.326639056,-0.0450300425,0.3324468,-0.3822283,0.379177183,-0.40929088,-0.07892936,-0.0148199238,-0.163384065,0.137081057,-0.499213666,-0.32890898,0.121586278,-0.425080925,-0.160823375,0.2214659,-0.234039143,-0.355515152,-0.0883214,-0.221489951,-0.0572931729,0.144195437],[-0.218604043,0.0542088747,0.306649625,0.323535621,-0.253638357,-0.443302423,0.0401617773,0.2131983,0.4607447,0.514303267,-0.425201356,-0.240915328,-0.111627355,-0.501916,-0.356755465,0.06776028,-0.0271459762,0.5095056,-0.04769128,-0.304495126,-0.309481442,-0.08264924,0.0214868858,0.3417911,0.083006084],[-0.0569923036,-0.22025317,0.4131012,0.2863303,0.09918864,-0.0353179723,-0.3500391,-0.278116256,0.02735706,-0.339293063,-0.224449411,-0.182758391,-0.437497526,0.35333547,-0.143337309,0.436219662,0.107533894,0.185240224,-0.495777249,-0.3996134,-0.1408718,0.203036368,-0.1550835,0.07491038,0.186829925],[0.185911387,-0.08935696,0.324894965,-0.2690928,-0.0747782663,0.3630577,-0.45411244,0.4504595,-0.2680343,0.294123232,0.2850327,0.143696338,0.4398129,-0.143565118,0.0406874456,0.41865018,-0.463442445,0.352150232,0.339992821,0.370341659,-0.2463901,-0.09585563,-0.368933976,-0.397331,-0.247748]],"weightsDelta":[[0.00121965772,-0.000897106365,0.000906513946,-0.000643630745,-0.00136705278,0.000206653174,0.000112096037,-0.000771896739,0.00152875786,0.00058503123,0.0008727715,0.00121561834,0.0004403222,0.00033422414,-0.000428996136,-0.0008990822,0.0005444416,0.00084816193,-0.000370803871,-0.0009808323,-0.00104490458,-7.90324339E-05,0.0006607146,-0.001168192,0.000539068948],[0.0134136621,-0.009866278,0.009969741,-0.00707858056,-0.015034697,0.00227274885,0.00123282,-0.008489236,0.01681311,0.00643410953,0.009598645,0.0133692371,0.00484261569,0.00367576047,-0.00471805269,-0.009888008,0.005987709,0.009327992,-0.00407806039,-0.0107870856,-0.0114917466,-0.000869190029,0.00726646651,-0.012847648,0.00592862163],[1.57393188E-05,-1.157689E-05,1.16982919E-05,-8.305863E-06,-1.76414087E-05,2.6667974E-06,1.44656588E-06,-9.961097E-06,1.97281624E-05,7.54965367E-06,1.12628559E-05,1.5687192E-05,5.682227E-06,4.31306262E-06,-5.536067E-06,-1.16023875E-05,7.025856E-06,1.09452767E-05,-4.78511356E-06,-1.26573468E-05,-1.34841821E-05,-1.01989E-06,8.526325E-06,-1.50751694E-05,6.956524E-06],[0.0160230547,-0.0117855882,0.0119091785,-0.008455594,-0.0179594327,0.00271487213,0.00147264346,-0.0101406677,0.0200838055,0.00768575259,0.0114658931,0.0159699861,0.00578466151,0.004390815,-0.00563586643,-0.0118115461,0.007152512,0.0111425892,-0.00487137539,-0.012885523,-0.0137272635,-0.00103827566,0.00868003,-0.0153469322,0.00708193053],[-0.01851598,0.0136192339,-0.0137620522,0.009771147,0.0207536276,-0.003137262,-0.00170176267,0.01171839,-0.0232085176,-0.00888153,-0.0132497987,-0.018454656,-0.00668466,-0.005073954,0.00651271548,0.01364923,-0.008265327,-0.012876194,0.005629282,0.0148903,0.0158630013,0.00119981437,-0.0100305006,0.0177346636,-0.008183763],[0.0065044,-0.004784243,0.004834413,-0.00343246479,-0.007290454,0.00110207556,0.000597805,-0.00411650352,0.008152822,0.003119955,0.00465446571,0.006482858,0.002348226,0.00178240787,-0.00228782441,-0.00479478,0.00290349172,0.00452322373,-0.00197748677,-0.005230751,-0.005572447,-0.000421477744,0.00352357235,-0.006229935,0.00287483959],[0.01910681,-0.0140538132,0.0142011894,-0.0100829368,-0.0214158613,0.0032373697,0.00175606471,-0.0120923156,0.0239490848,0.009164933,0.01367259,0.0190435313,0.00689796265,0.00523586,-0.00672053127,-0.0140847666,0.008529067,0.0132870637,-0.005808908,-0.0153654385,-0.0163691789,-0.00123809965,0.0103505673,-0.018300565,0.008444902],[-0.007514942,0.00552753638,-0.00558550144,0.003965742,0.00842312,-0.00127329712,-0.0006906817,0.00475605531,-0.009419467,-0.00360468,-0.00537759671,-0.00749005331,-0.002713053,-0.00205932767,0.00264326716,0.00553971063,-0.0033545862,-0.00522596436,0.00228471449,0.00604341459,0.006438198,0.0004869597,-0.004071004,0.00719783548,-0.0033214828],[-0.0231955759,0.0170612615,-0.0172401741,0.0122406362,0.02599875,-0.003930151,-0.002131854,0.0146800112,-0.0290740728,-0.0111261839,-0.0165984575,-0.023118753,-0.008374093,-0.0063563087,0.008158692,0.0170988385,-0.010354246,-0.01613043,0.007051986,0.0186535679,0.0198721029,0.001503047,-0.0125655374,0.0222167969,-0.0102520688],[0.0286919344,-0.02110405,0.02132536,-0.0151411435,-0.0321593434,0.004861429,0.00263701216,-0.0181585457,0.0359633826,0.0137626138,0.0205315817,0.02859691,0.0103583951,0.007862482,-0.0100919539,-0.0211505312,0.0128077595,0.019952653,-0.008723006,-0.0230736658,-0.0245809425,-0.00185920473,0.0155430324,-0.0274812263,0.0126813706],[-0.0302081481,0.0222192835,-0.02245229,0.01594127,0.0338587873,-0.005118329,-0.00277636386,0.0191181265,-0.0378638543,-0.0144898938,-0.0216165651,-0.0301081,-0.01090578,-0.008277971,0.0106252581,0.0222682226,-0.0134845795,-0.0210070424,0.009183968,0.0242929831,0.0258799121,0.00195745355,-0.0163643975,0.02893346,-0.0133515121],[-0.0150916465,0.0111005018,-0.0112169078,0.007964077,0.0169154648,-0.00255705882,-0.00138703978,0.009551198,-0.01891635,-0.007238986,-0.0107993893,-0.0150416642,-0.005448404,-0.00413558027,0.00530825835,0.01112495,-0.006736743,-0.0104948794,0.0045882063,0.0121364975,0.0129293092,0.0009779215,-0.008175467,0.0144548276,-0.0066702636],[0.0271633789,-0.0199797377,0.0201892555,-0.0143345026,-0.0304460619,0.00460243737,0.002496526,-0.0171911549,0.0340474434,0.0130294142,0.0194377676,0.0270734169,0.009806555,0.00744361058,-0.009554308,-0.0200237427,0.01212543,0.01888968,-0.00825829,-0.0218444224,-0.0232713986,-0.00176015613,0.0147149824,-0.0260171723,0.0120057743],[-0.0315657742,0.0232178736,-0.02346135,0.01665771,0.0353804864,-0.00534835923,-0.0029011406,0.0199773423,-0.03956555,-0.0151411043,-0.0225880668,-0.03146123,-0.0113959126,-0.008650004,0.0111027835,0.02326901,-0.01409061,-0.02195115,0.00959671848,0.0253847688,0.0270430185,0.00204542628,-0.0170998536,0.0302338,-0.0139515614],[-0.0114811379,0.00844483,-0.008533387,0.00605876045,0.0128686288,-0.001945311,-0.00105520594,0.00726618059,-0.0143908244,-0.005507139,-0.008215756,-0.0114431139,-0.00414493354,-0.0031461888,0.00403831666,0.008463429,-0.005125052,-0.007984096,0.003490529,0.009232976,0.009836116,0.0007439647,-0.00621957751,0.01099667,-0.00507447729],[-0.0109431352,0.008049107,-0.008133515,0.005774848,0.0122656077,-0.00185415416,-0.00100575923,0.006925689,-0.0137164732,-0.00524907559,-0.007830768,-0.0109068919,-0.003950703,-0.002998759,0.003849082,0.008066836,-0.004884893,-0.00760996342,0.00332696363,0.008800321,0.009375198,0.000709102664,-0.00592812942,0.01048137,-0.00483668828],[-0.00676508155,0.00497598434,-0.00502816541,0.00357003,0.00758263841,-0.00114624412,-0.00062176364,0.00428148359,-0.008479568,-0.00324499561,-0.004841006,-0.006742676,-0.00244233734,-0.00185384264,0.002379515,0.00498694368,-0.00301985675,-0.004704504,0.00205673976,0.005440387,0.005795778,0.000438369578,-0.00366478879,0.00647961674,-0.00299005653],[0.0154367415,-0.0113543319,0.0114734,-0.008146188,-0.0173022635,0.00261553,0.00141875667,-0.009769602,0.0193489026,0.00740451645,0.0110463351,0.0153856156,0.00557299,0.00423014676,-0.00542964,-0.01137934,0.00689078867,0.0107348608,-0.004693123,-0.0124140186,-0.0132249584,-0.00100028329,0.00836241152,-0.01478536,0.00682278955],[-0.0262662657,0.0193198752,-0.0195224732,0.0138610834,0.0294405315,-0.004450435,-0.00241407426,0.016623389,-0.032922972,-0.0125990976,-0.0187958051,-0.0261792745,-0.009482677,-0.00719777355,0.009238761,0.0193624273,-0.0117249675,-0.01826582,0.007985546,0.0211229753,0.0225028247,0.00170202414,-0.0142289959,0.0251579136,-0.0116092646],[0.00123617554,-0.0009092559,0.0009187909,-0.000652347459,-0.00138556678,0.000209451871,0.000113614158,-0.0007823506,0.00154946186,0.00059295434,0.0008845915,0.00123208144,0.000446285529,0.000338750542,-0.000434806047,-0.0009112585,0.00055181497,0.00085964863,-0.000375825679,-0.0009941157,-0.00105905579,-8.010277E-05,0.000669662666,-0.00118401286,0.0005463696],[-0.0114348149,0.008410757,-0.008498957,0.006034315,0.0128167076,-0.00193746225,-0.00105094851,0.00723686349,-0.0143327611,-0.005484919,-0.008182608,-0.0113969436,-0.00412821025,-0.00313349487,0.004022023,0.008429282,-0.00510437367,-0.007951883,0.0034764458,0.009195724,0.009796429,0.000740963034,-0.006194483,0.0109523023,-0.005054003],[0.0105707273,-0.007775187,0.007856722,-0.00557832373,-0.0118481955,0.0017910552,0.000971532136,-0.00669,0.013249686,0.00507044373,0.00756427739,0.0105357179,0.003816256,0.002896708,-0.00371809327,-0.00779231172,0.004718655,0.00735098775,-0.00321374321,-0.008500836,-0.009056149,-0.0006849711,0.00572638866,-0.0101246769,0.00467209052],[-0.0144569445,0.010633653,-0.0107451631,0.00762913562,0.01620406,-0.00244951784,-0.00132870569,0.009149509,-0.0181207936,-0.00693453941,-0.0103452047,-0.0144090643,-0.00521926256,-0.003961652,0.00508501148,0.0106570739,-0.00645341864,-0.0100535015,0.00439524231,0.0116260787,0.0123855472,0.000936793571,-0.007831635,0.0138469078,-0.00638973527],[-0.00253169052,0.0018621583,-0.00188168592,0.00133600924,0.00283764419,-0.000428957952,-0.000232682083,0.00160225586,-0.00317330169,-0.001214372,-0.00181164546,-0.00252330583,-0.000913993863,-0.0006937619,0.000890483847,0.00186625973,-0.00113011838,-0.00176056253,0.000769691949,0.00203595124,0.002168949,0.000164050667,-0.00137147075,0.0024248613,-0.00111896626],[-0.0201535914,0.0148237618,-0.0149792125,0.0106353378,0.0225891434,-0.00341473147,-0.001852272,0.0127548017,-0.0252611525,-0.009667041,-0.014421653,-0.0200868454,-0.007275873,-0.00552271074,0.007088721,0.0148564111,-0.008996339,-0.0140150059,0.00612715352,0.0162072461,0.0172659773,0.00130592985,-0.01091763,0.0193031747,-0.008907561]],"outputs":[-0.790379167,0.396375567,0.1873106,0.25520587,-0.144236058,-0.627629,0.5980014,0.430548817,-0.35626936,0.0747997761,0.0236638,-0.195114329,0.317558348,-0.198893055,-0.217937842,0.530014038,0.248154074,0.574507236,0.230080336,-0.8231814,-0.41780743,0.0572068356,-0.298478752,-0.0794351,-0.154825151],"gamma":[-0.0025651555,-0.0282113,-3.31025658E-05,-0.03369931,0.0389423743,-0.0136799021,-0.040184997,0.01580525,0.04878439,-0.0603442043,0.06353307,0.0317403972,-0.0571293831,0.0663884,0.02414686,0.0230153445,0.0142281605,-0.03246619,0.0552425943,-0.00259989547,0.0240494348,-0.022232106,0.0304055065,0.00532459235,0.04238656],"error":[0.0,0.0,0.0,0.0,0.0,0.0,0.0,0.0,0.0,0.0,0.0,0.0,0.0,0.0,0.0,0.0,0.0,0.0,0.0,0.0,0.0,0.0,0.0,0.0,0.0]},{"numberOfInputs":25,"numberOfOutputs":1,"inputs":[-0.790379167,0.396375567,0.1873106,0.25520587,-0.144236058,-0.627629,0.5980014,0.430548817,-0.35626936,0.0747997761,0.0236638,-0.195114329,0.317558348,-0.198893055,-0.217937842,0.530014038,0.248154074,0.574507236,0.230080336,-0.8231814,-0.41780743,0.0572068356,-0.298478752,-0.0794351,-0.154825151],"weights":[[0.0496659465,0.243993938,0.0002758547,0.262784451,-0.289847046,0.164469332,0.455702454,-0.141386256,-0.407196134,0.442255735,-0.463327,-0.240487754,0.462923855,-0.5036544,-0.1847714,-0.233213678,-0.110463962,0.3531657,-0.4251922,0.0586500764,-0.212419957,0.162579283,-0.243291855,-0.039065022,-0.3165055]],"weightsDelta":[[0.108416058,-0.05438264,-0.02576824,-0.0350376926,0.0197396837,0.08613265,-0.0819985941,-0.0591068938,0.0488380641,-0.010174376,-0.00334201031,0.0267258752,-0.0434858538,0.0271779038,0.0298585314,-0.07272415,-0.0340295136,-0.07879779,-0.0316259153,0.11293593,0.05733233,-0.00786764547,0.0409258641,0.0108955652,0.0211964026]],"outputs":[0.7186727],"gamma":[-0.137204021],"error":[-0.28265357]}]}