{"layer":[3,25,25,1],"layers":[{"numberOfInputs":3,"numberOfOutputs":25,"inputs":[1.0,1.0,1.0],"weights":[[-0.44444868,0.349230766,0.157575533],[0.010248486,0.356398284,-0.128465742],[0.191508159,0.218487591,0.452098429],[0.3166653,0.266317427,0.240341067],[0.1901231,-0.510900855,-0.4281667],[-0.129733682,-0.313647419,-0.33540383],[0.07539964,0.379551321,0.0125479819],[-0.387435257,-0.472900748,-0.516190052],[0.0439556,-0.480239719,-0.248881027],[-0.195262969,-0.4111749,0.1967013],[0.253609836,0.320257843,-0.0188842956],[-0.0849580541,0.3332694,0.00774675049],[-0.173819259,0.352968752,-0.0886464342],[-0.375390232,-0.399687,0.18937248],[0.446919978,0.155891344,0.107656419],[-0.397475481,-0.0180442743,-0.0166456047],[0.0447685868,-0.352050632,0.537292838],[-0.247627646,0.280359268,-0.3457341],[0.4119216,0.303009778,0.223687455],[0.0359493978,0.476646751,0.287099659],[-0.3450492,-0.16801779,0.2233528],[-0.275660843,-0.501677334,0.4512316],[-0.321966678,-0.1745863,-0.3251384],[0.03882274,-0.459738016,-0.09943399],[0.210932508,-0.1006734,0.28331092]],"weightsDelta":[[-0.02006892,-0.02006892,-0.02006892],[0.0120879719,0.0120879719,0.0120879719],[0.03557072,0.03557072,0.03557072],[-0.04118102,-0.04118102,-0.04118102],[-0.01877843,-0.01877843,-0.01877843],[0.0308716353,0.0308716353,0.0308716353],[0.0218200833,0.0218200833,0.0218200833],[0.0214605313,0.0214605313,0.0214605313],[-0.00370162143,-0.00370162143,-0.00370162143],[0.0515059642,0.0515059642,0.0515059642],[-0.0570100881,-0.0570100881,-0.0570100881],[0.0553067066,0.0553067066,0.0553067066],[0.0327491052,0.0327491052,0.0327491052],[0.0618989058,0.0618989058,0.0618989058],[0.0562752821,0.0562752821,0.0562752821],[-0.0169000458,-0.0169000458,-0.0169000458],[0.009474397,0.009474397,0.009474397],[-0.0413278453,-0.0413278453,-0.0413278453],[0.0389120542,0.0389120542,0.0389120542],[0.0290315151,0.0290315151,0.0290315151],[0.0122890379,0.0122890379,0.0122890379],[0.02831327,0.02831327,0.02831327],[0.0468515,0.0468515,0.0468515],[-0.0558408536,-0.0558408536,-0.0558408536],[-0.07352762,-0.07352762,-0.07352762]],"outputs":[0.06227692,0.233776912,0.697335064,0.6768749,-0.6345188,-0.6520087,0.43617627,-0.880171,-0.594867051,-0.38824898,0.5042458,0.250604868,0.0902567655,-0.5267994,0.6109701,-0.407129347,0.2260386,-0.3031661,0.734587,0.663866639,-0.281871766,-0.315018,-0.6759894,-0.477969527,0.374433845],"gamma":[-0.02006892,0.0120879719,0.03557072,-0.04118102,-0.01877843,0.0308716353,0.0218200833,0.0214605313,-0.00370162143,0.0515059642,-0.0570100881,0.0553067066,0.0327491052,0.0618989058,0.0562752821,-0.0169000458,0.009474397,-0.0413278453,0.0389120542,0.0290315151,0.0122890379,0.02831327,0.0468515,-0.0558408536,-0.07352762],"error":[0.0,0.0,0.0,0.0,0.0,0.0,0.0,0.0,0.0,0.0,0.0,0.0,0.0,0.0,0.0,0.0,0.0,0.0,0.0,0.0,0.0,0.0,0.0,0.0,0.0]},{"numberOfInputs":25,"numberOfOutputs":25,"inputs":[0.06227692,0.233776912,0.697335064,0.6768749,-0.6345188,-0.6520087,0.43617627,-0.880171,-0.594867051,-0.38824898,0.5042458,0.250604868,0.0902567655,-0.5267994,0.6109701,-0.407129347,0.2260386,-0.3031661,0.734587,0.663866639,-0.281871766,-0.315018,-0.6759894,-0.477969527,0.374433845],"weights":[[0.327665061,-0.240198269,-0.0603477433,-0.0481757335,-0.06996344,-0.0110572549,0.39598304,0.258810133,0.416057527,0.179717,0.05821959,-0.4808029,-0.11641629,-0.01244169,-0.464878052,0.352467239,0.3851125,0.3281378,0.167838052,-0.465724558,0.2901232,0.504689455,0.164469272,0.171197176,0.227368444],[0.374916971,-0.347895652,-0.282641619,0.485629946,-0.383374,0.0986444652,-0.05492822,-0.134253651,-0.163668782,-0.380833238,0.06396127,-0.177735478,-0.397865534,0.0137569653,-0.1780034,-0.226772457,0.0242563281,0.245406076,0.06823218,-0.032299988,0.4144486,0.323723257,0.349721044,-0.347304672,0.1646028],[-0.310611546,0.03151005,-0.4457834,-0.1179291,0.5057859,0.3723309,0.0485715419,0.292863578,0.241123,0.08847226,-0.153711185,0.171574712,0.347285539,0.342074782,-0.4650654,-0.363972068,0.115302317,-0.396505535,-0.18562144,-0.0819289,0.0571083166,0.250261933,-0.0962542,-0.181358561,0.188037232],[-0.230903968,-0.251253873,-0.366224974,-0.2876602,0.2803936,-0.4480916,-0.192600086,-0.4191036,-0.184044689,0.4413193,-0.4295663,-0.153770611,0.445667773,-0.149763241,-0.222515434,-0.4891729,0.10592217,-0.106049158,0.4223268,0.455616385,0.108183749,0.200737879,0.424787849,-0.016746467,-0.1375795],[-0.234066635,0.270500124,-0.0201006681,0.203737557,-0.382764757,-0.0795387,-0.319883168,0.296220481,0.196694627,0.226728946,0.0921163559,-0.0759939253,0.00333497347,0.4391409,0.0286640022,-0.433764,0.105141021,0.0153830014,0.381423026,-0.4917334,0.2622099,0.2140642,0.208183944,-0.4147127,-0.0581070744],[0.4345533,-0.127061382,-0.08336285,-0.142295569,-0.3699763,0.07394689,-0.175554946,0.15195556,0.347950041,0.0173285659,-0.213867158,0.3223967,-0.137523547,-0.298359841,0.0219420828,0.389381617,0.04480129,-0.255595833,0.117368221,0.188705385,0.079840526,-0.393932283,-0.05683415,-0.100055926,0.387355],[0.496998519,-0.3236401,-0.46637252,-0.0209388714,0.109374061,0.0560541451,-0.43906498,-0.0975946039,-0.235778764,-0.319456667,-0.452748537,0.2595952,-0.06385307,0.07459465,-0.3495629,-0.2291539,0.276666731,0.158315,-0.08585993,-0.259004921,-0.25628075,-0.254638433,-0.186174989,-0.1368002,-0.385366261],[-0.2945309,-0.0333631635,-0.412131429,-0.10459166,0.3684914,0.335038781,0.4251208,-0.478148371,-0.02455772,-0.3672234,-0.105637573,-0.220323876,-0.3438745,-0.2555946,0.468076527,-0.281044722,-0.06414264,-0.405680031,-0.476630747,-0.0337374,-0.369168341,-0.381290942,0.167295769,-0.02868355,-0.07417924],[0.30325976,-0.0484277,-0.4793106,-0.345496863,0.148575008,0.255509049,0.367827117,0.180174321,-0.133219615,-0.11013633,-0.4184952,0.474104643,0.498859555,-0.1004813,-0.153672591,-0.3804046,0.239354536,0.4685521,-0.05667993,0.2555192,0.4826264,0.113703936,-0.08490722,-0.0475857481,-0.4780957],[0.312447816,-0.358339876,-0.213664815,0.39050746,0.48689115,-0.397394657,0.3026031,0.12052086,0.474571079,-0.443393767,-0.117314845,0.405954272,0.361980945,0.322984129,-0.125114,0.0282406025,0.109430164,0.293677539,0.351453722,0.385593921,-0.252316326,-0.07037452,0.198848456,0.178982362,-0.147023425],[-0.110053048,-0.351033956,-0.263057262,0.220619246,-0.0702166557,-0.321484149,-0.4564206,0.04193163,-0.376401842,0.3227575,0.121809691,0.08485555,0.287336916,-0.1349081,-0.198001087,-0.230119109,-0.150968179,-0.482832521,-0.136154667,0.475370049,-0.295015246,0.362612784,-0.3704143,-0.43544668,-0.26637125],[-0.1276709,0.316837251,0.051540684,0.0568005219,0.285571933,-0.107607387,-0.0621478371,0.131161511,0.04718893,0.101802468,0.4513986,0.0761162,0.414681882,0.0422651,0.3589157,-0.148615777,-0.165724531,0.238918588,0.477629066,0.2506323,0.4507261,0.328464538,-0.0709542,0.0664679855,0.1021342],[0.3989152,-0.08872286,-0.128044739,0.230302319,-0.372706264,-0.00292269979,-0.4893273,-0.379659384,-0.03143043,-0.447716981,-0.117784485,-0.0235576984,-0.496121645,-0.158857048,-0.0348579325,-0.340474278,0.473938376,-0.259765029,0.304881215,-0.153110668,0.1890824,-0.08056916,-0.0280406866,-0.0307897255,0.124710046],[0.3885682,-0.349685967,-0.3412227,-0.188509718,-0.2379865,0.048249647,-0.0949453562,-0.521749735,0.448665351,0.372070968,0.4779196,-0.407492429,0.398076922,-0.105126284,-0.412172645,0.4582803,-0.08123362,-0.06587246,-0.01866061,0.0102275172,0.373082429,-0.180832386,-0.130764648,0.036314033,0.0916181],[0.489860773,0.08056296,0.135476157,-0.2721524,0.398412436,-0.03965607,0.4238692,0.3827747,-0.41250518,-0.239461884,-0.136372626,0.358950853,0.356066,-0.296320826,0.00213887054,0.4767482,-0.03676744,-0.442101,-0.02383534,-0.0197436679,-0.412199527,-0.417720348,0.35251978,0.184902534,-0.130911589],[-0.2355702,0.511983633,-0.5042751,0.4705779,0.259497374,0.05702612,0.27896297,0.119760707,0.2227181,-0.215428784,0.486428231,0.268183857,0.280785084,-0.47343263,-0.08573009,-0.444658846,-0.332726479,0.317459255,-0.366367221,0.212911934,-0.416999042,0.0348981954,-0.250956357,0.4637565,0.0129211228],[-0.09763053,-0.211952344,0.378673822,-0.442303777,0.0225206278,0.403581,0.220821559,0.472399473,0.36149478,0.144606933,-0.04357118,0.400797874,0.401087,-0.1343908,0.209309116,0.09710163,-0.260692269,-0.3577636,0.375775933,0.0180535838,-0.292310327,0.211162478,0.5096097,-0.42808643,-0.0911945],[0.3665853,-0.217792839,0.22959882,0.4871439,-0.234586537,0.1789873,0.267976522,-0.474622458,-0.05767761,-0.163616985,-0.239456758,0.381241173,0.0360247344,-0.303686678,-0.07385537,-0.257468581,0.33707,0.402886271,-0.07101496,0.458855718,-0.3493306,-0.191191018,-0.07572559,-0.0873580649,-0.3534761],[0.365657955,-0.0484366119,-0.152146176,-0.0602119379,-0.177908346,0.20280911,-0.204194486,0.312588722,0.147569776,0.137764484,0.114710078,-0.485346526,0.4693474,0.08147786,0.451689333,0.196843266,0.353959233,-0.05290629,-0.4779616,-0.0246090125,0.208242327,0.200598851,0.420342535,-0.0198739618,-0.220503435],[-0.128017932,0.273831218,0.0883902,-0.379066348,-0.237608686,0.0631691143,0.338379443,-0.206445158,0.340693474,-0.09289968,-0.259106964,-0.078233,0.114715517,-0.380607933,0.132236227,0.456727654,-0.438743383,0.381459743,0.06650723,0.299003035,-0.25917542,0.357416332,-0.1666796,-0.034771014,-0.247753844],[-0.191165447,0.358329684,-0.0584580638,0.456679136,-0.08638182,-0.3454668,0.0262706261,0.3290893,-0.349064529,0.4510754,0.437456667,0.208712682,0.203749776,-0.112032048,-0.4161905,0.2674558,0.220494285,-0.3814249,-0.307049245,0.216972157,-0.224659264,-0.272429764,-0.181374356,-0.118339509,0.0160170011],[0.142314076,0.320605,-0.141914591,0.186229914,-0.455685526,0.0191941261,-0.0531442352,-0.359619349,0.370936036,0.447410434,0.2127128,-0.08589473,-0.144943774,-0.093247056,-0.25402528,0.213411376,0.0569974035,-0.0273587089,-0.3348918,0.193161026,-0.2548319,-0.14980863,-0.00317994086,-0.0161922853,-0.475370467],[0.0371270441,0.22535409,-0.337414652,0.2561224,0.461252838,-0.431589633,0.0249334965,-0.4668631,-0.06659326,0.277341336,-0.153167173,-0.33815217,-0.326694161,-0.369547546,-0.0693391,-0.002233316,0.0881783739,0.329403758,-0.0637547448,-0.12415725,-0.13349317,-0.131714717,0.213438749,0.434357017,0.4894506],[0.2100844,0.278086632,-0.3363667,0.189346328,-0.244803816,-0.204536274,-0.1766638,0.385947973,0.152462766,0.004026215,0.29380253,-0.214235008,-0.1276509,0.39710027,0.384082,-0.319341242,-0.133897662,0.422430545,0.138576686,0.3928804,0.05831242,-0.10031113,-0.163695246,0.226583272,-0.2989389],[0.178123862,0.0303237624,-0.4397707,-0.377322137,0.161881477,-0.3405441,-0.477833658,-0.293777,0.2607135,-0.251816958,-0.19250308,-0.1313698,-0.137996048,-0.336045772,-0.0179859065,-0.469739825,-0.233355224,0.0233535282,0.129247174,0.150979817,-0.300274938,-0.315465242,0.434309661,0.04225507,-0.314265]],"weightsDelta":[[-0.0009761155,-0.00366823981,-0.0109412782,-0.0106183691,0.009955428,0.0102284616,-0.006843956,0.0138086844,0.00933291949,0.006089139,-0.00790905952,-0.003934153,-0.001417558,0.008262795,-0.009587105,0.00638807332,-0.00354671921,0.00475810748,-0.0115257027,-0.0104161,0.00442172447,0.00494108442,0.01060433,0.007500842,-0.005871478],[0.00046329858,0.001741075,0.00519311335,0.00503985,-0.00472519454,-0.00485478574,0.003248381,-0.006554085,-0.00442973,-0.0028901184,0.00375391613,0.00186728674,0.000672822644,-0.003921812,0.00455037551,-0.0030320033,0.001683397,-0.002258364,0.00547050172,0.00494384533,-0.00209870515,-0.00234521157,-0.005033186,-0.00356016215,0.00278680888],[0.0009729025,0.00365616544,0.010905263,0.0105834175,-0.009922658,-0.0101947933,0.00682142843,-0.0137632312,-0.009302199,-0.006069096,0.007883025,0.00392120332,0.001412892,-0.008235598,0.009555548,-0.00636704639,0.00353504461,-0.00474244542,0.0114877643,0.0103818141,-0.00440716976,-0.00492482027,-0.0105694253,-0.00747615239,0.00585215166],[0.006055826,0.0227577779,0.0678797439,0.06587642,-0.061763525,-0.06345743,0.04245994,-0.085669145,-0.05790148,-0.0377770476,0.0490678437,0.024407506,0.008794538,-0.0512624271,0.0594784468,-0.03963164,0.022003863,-0.0295193214,0.07150552,0.06462154,-0.0274323989,-0.0306545123,-0.06578932,-0.04653526,0.03642668],[0.0010508881,0.00394923473,0.0117794033,0.0114317592,-0.0107180346,-0.0110119842,0.00736821769,-0.0148664592,-0.0100478409,-0.0065555796,0.00851491,0.0042355177,0.00152614608,-0.008895744,0.0103214979,-0.00687741349,0.00381840533,-0.00512258848,0.0124085965,0.0112139955,-0.00476043765,-0.005319582,-0.0114166448,-0.008075423,0.006321246],[0.00209773,0.007883265,0.0235134531,0.0228195041,-0.0213948041,-0.021981569,0.0147080664,-0.02967568,-0.0200569965,-0.0130859194,0.0169970356,0.008454728,0.00304641621,-0.017757237,0.0206032563,-0.0137283476,0.00762210926,-0.0102254543,0.0247694179,0.0223848149,-0.009502547,-0.010618683,-0.022789333,-0.0161197539,0.0126181534],[0.000614963355,0.00231103064,0.006893123,0.00668968726,-0.00627202727,-0.00644404162,0.004311766,-0.00869962,-0.00587984035,-0.00383622316,0.004982793,0.0024785588,0.0008930769,-0.00520565035,0.00603998,-0.00402455544,0.00223447126,-0.002997659,0.007261317,0.00656225532,-0.00278573413,-0.00311293663,-0.00668084249,-0.0047256113,0.00369909452],[0.00117548287,0.004417462,0.0131759858,0.0127871251,-0.01198878,-0.01231758,0.008241804,-0.0166290477,-0.0112391273,-0.00733281858,0.00952445,0.004737687,0.00170708809,-0.009950436,0.01154523,-0.00769280968,0.004271121,-0.00572993,0.0138797769,0.0125435423,-0.00532484241,-0.00595027953,-0.0127702188,-0.009032857,0.007070702],[0.000425235339,0.00159803336,0.00476646237,0.00462579029,-0.004336986,-0.004455931,0.00298150349,-0.00601562,-0.00406579673,-0.00265267468,0.0034455054,0.00171387591,0.0006175455,-0.00359960739,0.00417653,-0.00278290268,0.00154509407,-0.0020728237,0.00502106128,0.00453767367,-0.00192628161,-0.00215253583,-0.00461967429,-0.00326766958,0.002557853],[-0.0009408817,-0.00353583135,-0.0105463415,-0.01023509,0.009596078,0.00985925552,-0.006596917,0.0133102471,0.008996039,0.00586934574,-0.007623574,-0.003792146,-0.00136639,0.007964542,-0.009241049,0.00615749,-0.00341869681,0.004586359,-0.0111096716,-0.0100401212,0.004262118,0.00476273149,0.0102215568,0.00723009231,-0.00565954158],[-0.00217909482,-0.008189033,-0.0244254712,-0.0237046052,0.0222246461,0.02283417,-0.0152785489,0.030826712,0.0208349489,0.0135934837,-0.0176563021,-0.00878266152,-0.00316457776,0.01844599,-0.0214023963,0.01426083,-0.007917749,0.0106220692,-0.02573015,-0.0232530553,0.009871123,0.01103055,0.0236732643,0.0167449918,-0.0131075755],[0.00234840647,0.008825306,0.026323285,0.02554641,-0.02395146,-0.0246083438,0.0164656639,-0.03322189,-0.0224537849,-0.0146496724,0.0190281626,0.009465058,0.0034104595,-0.019879207,0.023065323,-0.01536887,0.008532943,-0.011447385,0.0277293362,0.0250597745,-0.0106380908,-0.0118876034,-0.0255126338,-0.0180460457,0.0141260093],[-0.00162541948,-0.00610832265,-0.0182193238,-0.017681621,0.0165776964,0.01703235,-0.0113964984,0.0229941066,0.0155411,0.0101395836,-0.0131701,-0.006551119,-0.002360506,0.013759139,-0.0159643684,0.0106373671,-0.005905967,0.007923161,-0.0191925038,-0.0173448026,0.00736301858,0.008227853,0.017658243,0.01249034,-0.009777136],[-0.005846358,-0.021970598,-0.06553182,-0.06359778,0.0596271567,0.06126247,-0.04099127,0.08270589,0.0558987,0.03647036,-0.0473706126,-0.0235632621,-0.008490339,0.0494892858,-0.057421118,0.0382608026,-0.021242762,0.028498264,-0.06903218,-0.06238631,0.0264835283,0.0295941886,0.0635137,0.04492563,-0.0351667],[0.00252944767,0.009505658,0.0283525754,0.02751581,-0.0257979017,-0.0265054256,0.01773502,-0.035783,-0.02418477,-0.0157790314,0.0204950646,0.01019473,0.00367337558,-0.0214117169,0.0248434525,-0.016553672,0.009190757,-0.0123298755,0.02986702,0.02699166,-0.011458193,-0.0128040314,-0.0274794288,-0.0194372348,0.0152149983],[-0.00437077647,-0.0164253674,-0.0489920266,-0.0475461334,0.0445776656,0.0458002351,-0.03064535,0.0618314855,0.0417902432,0.0272654872,-0.0354145877,-0.017616054,-0.0063474346,0.0369985253,-0.0429284163,0.0286040343,-0.0158812311,0.021305494,-0.0516089238,-0.0466404259,0.0197992641,0.0221248157,0.04748327,0.0335867032,-0.0262908619],[0.00492854649,0.0185214654,0.0552440733,0.0536136627,-0.0502663739,-0.0516449623,0.03455611,-0.06972202,-0.0471232422,-0.03074493,0.03993397,0.0198641,0.007157453,-0.0417200327,0.04840666,-0.0322542936,0.0179078914,-0.0240243617,0.0581949167,0.0525923744,-0.0223259162,-0.02494824,-0.0535427779,-0.03787282,0.029645931],[-0.000331017916,-0.00124396454,-0.00371037936,-0.00360087538,0.0033760604,0.00346865086,-0.00232090568,0.004682767,0.00316495681,0.00206493377,-0.00268210075,-0.00133414031,-0.000480718823,0.002802059,-0.00325115561,0.00216630776,-0.00120275468,0.00161355769,-0.003908568,-0.003532282,0.00149948429,0.00167560845,0.00359611446,0.002543667,-0.00199112133],[-0.000153952773,-0.0005785542,-0.00172565645,-0.00167472742,0.00157016842,0.00161323126,-0.00107942754,0.00217790343,0.00147198653,0.0009603779,-0.00124741544,-0.000620493956,-0.000223577023,0.00130320678,-0.00151207659,0.00100752583,-0.000559387961,0.000750447856,-0.00181783189,-0.00164282543,0.0006973936,0.000779307,0.0016725132,0.00118303159,-0.000926048553],[-0.000782997929,-0.00294250436,-0.008776623,-0.0085176,0.007985816,0.008204833,-0.00548992725,0.0110767325,0.007486467,0.00488444557,-0.006344307,-0.00315580843,-0.00113710412,0.00662806,-0.00769036356,0.005124238,-0.00284502562,0.0038167492,-0.009245424,-0.008355347,0.003546917,0.00396352541,0.008506338,0.00601685327,-0.00470984727],[-0.00247961446,-0.009318385,-0.027793996,-0.0269737169,0.0252896547,0.0259832386,-0.0173856188,0.0350780338,0.0237083025,0.0154681662,-0.0200912878,-0.009993882,-0.00360100577,0.02098988,-0.0243540071,0.0162275471,-0.009009688,0.0120869623,-0.0292786043,-0.0264598932,0.0112324534,0.0125517771,0.0269380528,0.0190543,-0.0149152456],[0.006360115,0.0239012968,0.07129052,0.06918653,-0.06486698,-0.0666459948,0.04459344,-0.08997379,-0.0608108751,-0.0396752432,0.05153337,0.0256339181,0.00923644,-0.0538382269,0.0624670833,-0.0416230261,0.0231095,-0.03100259,0.0750984848,0.0678686,-0.0288108066,-0.03219482,-0.06909506,-0.0488735363,0.0382570252],[-0.00308846822,-0.0116064567,-0.03461864,-0.0335969441,0.03149937,0.03236326,-0.0216545481,0.0436912253,0.029529728,0.0192662776,-0.0250245761,-0.0124478163,-0.00448521,0.0261438135,-0.03033398,0.0202121176,-0.01122196,0.0150548406,-0.0364677832,-0.0329569541,0.0139905112,0.015633788,0.0335525237,0.0237329621,-0.01857759],[0.0047620046,0.0178956017,0.0533773042,0.051801987,-0.04856781,-0.0498998128,0.0333884135,-0.06736602,-0.04553089,-0.02970602,0.03858455,0.019192867,0.00691559352,-0.04031026,0.0467709377,-0.03116438,0.01730276,-0.0232125483,0.0562284365,0.05081521,-0.0215714946,-0.0241052061,-0.0517334975,-0.03659305,0.0286441557],[-0.00483924337,-0.0181858651,-0.05424307,-0.0526422039,0.0493555665,0.0507091768,-0.0339299664,0.06845868,0.046269387,0.0301878434,-0.03921038,-0.019504169,-0.00702776248,0.0409640819,-0.0475295521,0.03166986,-0.0175834056,0.02358905,-0.0571404472,-0.05163942,0.02192138,0.0244961865,0.0525726,0.03718658,-0.0291087572]],"outputs":[-0.9052847,0.2470945,-0.924232066,-0.0143591808,-0.2731768,0.206961632,-0.592184961,0.154142782,-0.6970252,0.00222255872,0.6649812,0.5315026,0.790936053,-0.4247473,-0.0968865454,0.303614467,-0.466675729,0.9288426,-0.856281,0.117797963,0.652704656,0.0205174312,-0.00140983425,0.09933894,-0.31761086],"gamma":[-0.0156888962,0.007446499,0.0156372543,0.09733399,0.016890699,0.0337163657,0.009884174,0.0188932847,0.00683471654,-0.0151225906,-0.0350241251,0.0377454348,-0.02612502,-0.09396726,0.04065527,-0.0702505559,0.0792154744,-0.00532038,-0.00247445,-0.0125849582,-0.0398543142,0.102224767,-0.04964029,0.07653868,-0.07778012],"error":[0.0,0.0,0.0,0.0,0.0,0.0,0.0,0.0,0.0,0.0,0.0,0.0,0.0,0.0,0.0,0.0,0.0,0.0,0.0,0.0,0.0,0.0,0.0,0.0,0.0]},{"numberOfInputs":25,"numberOfOutputs":1,"inputs":[-0.9052847,0.2470945,-0.924232066,-0.0143591808,-0.2731768,0.206961632,-0.592184961,0.154142782,-0.6970252,0.00222255872,0.6649812,0.5315026,0.790936053,-0.4247473,-0.0968865454,0.303614467,-0.466675729,0.9288426,-0.856281,0.117797963,0.652704656,0.0205174312,-0.00140983425,0.09933894,-0.31761086],"weights":[[0.392963558,-0.03579018,-0.4847669,-0.4400294,-0.08254877,-0.159181729,-0.0689333752,-0.0874433145,-0.0602149963,0.06835434,0.28391704,-0.237742752,0.315395683,0.518482149,-0.185511291,0.349690735,-0.45745784,0.175417379,0.0417283773,0.0577096753,0.3138751,-0.4622553,0.2243728,-0.349410653,0.391082]],"weightsDelta":[[0.200297341,-0.054647278,0.204469621,0.002990065,0.0603755154,-0.04582394,0.131011188,-0.0341191478,0.15417853,-0.000470966275,-0.147108689,-0.117640808,-0.17496103,0.0941175446,0.0213636234,-0.0670309,0.103091121,-0.205497921,0.1894397,-0.0260557458,-0.14436923,-0.00469036633,0.000461577962,-0.0220808834,0.07038494]],"outputs":[0.6341269],"gamma":[-0.221240729],"error":[-0.3682146]}]}