{"layer":[3,25,25,1],"layers":[{"numberOfInputs":3,"numberOfOutputs":25,"inputs":[1.0,1.0,1.0],"weights":[[0.4488341,0.415021867,-0.251148015],[0.470763773,-0.46622932,-0.482538342],[0.3626404,-0.210484132,-0.06385187],[0.143885866,0.104622476,0.196341932],[0.244269118,-0.3008527,-0.20505631],[0.175207362,0.279726475,-0.008243869],[-0.5225579,-0.335101545,-0.492510974],[0.456493,0.403999358,0.2535437],[0.491215,-0.4829817,-0.06683753],[0.08905507,0.1119099,0.07232891],[-0.368159,0.06188585,-0.362449139],[-0.4709934,-0.2004303,0.023866415],[0.288615882,-0.154395059,0.103591166],[-0.11492727,0.167222187,-0.172778055],[0.0599815436,0.415153563,-0.297577769],[0.179562747,-0.447742015,-0.289554149],[0.08966924,0.0568360724,-0.0172066726],[0.0301719774,0.300081432,-0.282136947],[-0.179237738,-0.4691562,-0.4427775],[-0.08128909,0.4240481,-0.5172778],[0.0437212028,-0.234338492,0.102928735],[0.328916758,0.0106316032,-0.442069232],[0.04323002,0.185319379,0.402229279],[0.275218457,0.42814526,-0.0486519374],[0.402352244,0.18323645,0.061262507]],"weightsDelta":[[0.06295385,0.06295385,0.06295385],[0.009901914,0.009901914,0.009901914],[-0.0514673553,-0.0514673553,-0.0514673553],[-0.06635606,-0.06635606,-0.06635606],[0.0228183512,0.0228183512,0.0228183512],[-0.08662621,-0.08662621,-0.08662621],[0.016871348,0.016871348,0.016871348],[0.0173825081,0.0173825081,0.0173825081],[0.052579,0.052579,0.052579],[-0.0546468161,-0.0546468161,-0.0546468161],[-0.06806531,-0.06806531,-0.06806531],[-0.089011386,-0.089011386,-0.089011386],[-0.0592559539,-0.0592559539,-0.0592559539],[0.09960223,0.09960223,0.09960223],[-0.0537063926,-0.0537063926,-0.0537063926],[-0.03828288,-0.03828288,-0.03828288],[-0.09364732,-0.09364732,-0.09364732],[-0.0198590681,-0.0198590681,-0.0198590681],[0.0196559243,0.0196559243,0.0196559243],[0.019975936,0.019975936,0.019975936],[-0.0602571331,-0.0602571331,-0.0602571331],[-0.05298128,-0.05298128,-0.05298128],[0.006048333,0.006048333,0.006048333],[0.0255937874,0.0255937874,0.0255937874],[-0.02028076,-0.02028076,-0.02028076]],"outputs":[0.5460305,-0.444643557,0.0880756,0.417656749,-0.255828738,0.419174343,-0.8740935,0.8054845,-0.05853725,0.266687125,-0.584138751,-0.570023239,0.233428016,-0.11990352,0.175714657,-0.5062938,0.12858288,0.0480793752,-0.797305346,-0.172768325,-0.0874645,-0.1021632,0.558588147,0.574833333,0.5695464],"gamma":[0.06295385,0.009901914,-0.0514673553,-0.06635606,0.0228183512,-0.08662621,0.016871348,0.0173825081,0.052579,-0.0546468161,-0.06806531,-0.089011386,-0.0592559539,0.09960223,-0.0537063926,-0.03828288,-0.09364732,-0.0198590681,0.0196559243,0.019975936,-0.0602571331,-0.05298128,0.006048333,0.0255937874,-0.02028076],"error":[0.0,0.0,0.0,0.0,0.0,0.0,0.0,0.0,0.0,0.0,0.0,0.0,0.0,0.0,0.0,0.0,0.0,0.0,0.0,0.0,0.0,0.0,0.0,0.0,0.0]},{"numberOfInputs":25,"numberOfOutputs":25,"inputs":[0.5460305,-0.444643557,0.0880756,0.417656749,-0.255828738,0.419174343,-0.8740935,0.8054845,-0.05853725,0.266687125,-0.584138751,-0.570023239,0.233428016,-0.11990352,0.175714657,-0.5062938,0.12858288,0.0480793752,-0.797305346,-0.172768325,-0.0874645,-0.1021632,0.558588147,0.574833333,0.5695464],"weights":[[0.197434962,0.0340214744,-0.487623572,0.0736163259,-0.164139822,-0.502818942,-0.201693669,-0.5147103,-0.398761451,-0.441830963,0.101162151,0.236570716,0.376863867,0.221787021,-0.239208415,-0.004282948,-0.238358423,-0.1266057,0.09601134,0.366243541,-0.0850610659,0.251406819,0.08233581,-0.162002623,-0.422673017],[-0.387219518,-0.150528669,-0.200769126,0.262762547,0.119565383,-0.477432847,0.14401719,-0.347545147,0.182060272,0.109381646,0.0445392653,-0.430502325,0.426700354,0.133266881,-0.489232838,-0.193459019,-0.218836382,0.037341,0.2856412,0.432697237,-0.166979641,0.164967611,0.462714046,0.140388861,-0.217792436],[0.131889075,-0.4688741,-0.182562917,0.2716497,-0.386096,0.4660258,0.39972055,0.1604036,-0.0163789354,-0.2983442,0.170289055,0.468854427,-0.257440925,-0.01850367,-0.462426215,0.448433667,0.0590948239,-0.297838628,-0.397576034,0.225549072,-0.0894973949,-0.17171973,0.24337326,0.0527296029,0.0623296574],[-0.3392433,-0.323963881,0.324741274,-0.07434217,0.246840045,-0.0310849473,-0.173595756,0.183006927,-0.025143655,0.4899102,0.45698905,-0.214564666,-0.09876539,0.0575990826,0.144812852,0.113844879,-0.09491492,-0.06408067,-0.100888848,-0.160642669,-0.166723669,-0.4647932,-0.4234058,0.252737939,0.491084218],[0.30370456,-0.06430885,0.35970813,0.442677081,0.365246028,-0.184882432,-0.260111451,0.329161823,-0.292559445,0.496449769,0.22004427,-0.4522424,-0.2461757,0.232825339,0.240894362,-0.2213191,-0.180246532,0.267525375,-0.0595840737,-0.453793645,0.158525079,-0.337493181,0.171085,-0.012566803,-0.381219983],[-0.4908868,0.395924062,-0.193507865,-0.289470166,-0.269099146,-0.399074018,-0.3577549,-0.402652264,-0.060014,0.4834686,0.489741743,0.00493049854,0.226240918,0.101660177,0.189287528,0.1693453,0.027250316,-0.3122425,0.06709291,0.38795045,0.0581293032,-0.336442,0.198673874,0.190741822,-0.459213555],[-0.490937263,-0.231915578,0.0657262,0.179370046,-0.179851621,0.106206074,0.327852219,-0.105966315,0.3321798,0.368464351,-0.100341827,-0.495799,0.06465903,0.4748341,0.386640728,0.112818785,0.480163217,0.299164027,0.258910924,0.2499003,0.295990944,0.08957956,-0.3342694,0.301025152,-0.118961908],[-0.378048152,0.483433038,-0.4294045,0.07262008,0.0338377357,0.341133475,-0.287738234,0.110851005,-0.331291378,-0.2824418,0.338267952,0.0843113661,-0.08896368,-0.378662348,-0.123791628,-0.328701138,-0.3913011,0.393301517,0.23949641,-0.207017854,0.169763535,0.460242629,-0.2900725,0.180629119,-0.226799875],[0.0643577054,-0.1332604,0.4386596,0.43434307,-0.256736249,-0.08252473,-0.387012362,0.249242783,-0.2059436,-0.310450256,0.137879208,0.2619595,0.3209136,-0.200218052,-0.475124151,-0.302345484,-0.118099578,-0.106501892,0.266918272,-0.446676582,-0.46887973,0.06332414,0.1757447,-0.127053246,0.0745396838],[0.218821928,0.184223011,-0.064876534,0.0202832222,0.209400371,-0.3201484,0.23077035,-0.08161783,-0.2004033,0.460133523,-0.0379685536,-0.2578344,0.187214658,0.427119434,0.29886958,0.2226546,0.3198186,-0.378251135,0.402943462,0.247809574,-0.0842268839,-0.207900241,0.104381874,0.2260632,-0.3855658],[-0.2409792,0.09639258,-0.041331362,0.115843073,-0.244323745,-0.505979359,0.2380103,0.015405816,-0.1405004,0.0487380326,0.250697881,0.187337518,-0.2577754,0.0846379846,-0.478774577,0.3892112,-0.1359298,0.0220346861,-0.110827088,0.0450069,0.432789177,0.199033812,-0.0530842356,0.439530373,-0.199788213],[-0.23582612,-0.107999317,0.2431832,0.172063351,-0.362472653,-0.05798583,-0.500437856,0.3189417,-0.101984039,-0.05491694,0.0504349023,-0.235883325,0.2712531,-0.451521724,0.45669052,0.240095124,0.21071288,-0.167067558,-0.226104677,-0.430872619,-0.436861455,0.0596021153,0.08690732,0.455394834,0.424785584],[-0.409889281,0.236255661,-0.250431567,-0.331873178,-0.340352356,0.101934776,-0.4406706,0.0296375826,-0.191886961,-0.462495416,0.0391987227,0.4091089,0.4291483,-0.309650064,-0.341509074,0.104579538,0.4394468,0.342344761,-0.3705257,-0.06939211,0.0562576242,0.118704155,-0.0132170916,-0.07723996,0.272504926],[-0.256509334,-0.142268628,-0.407791317,0.393836021,-0.252171665,0.149598,0.402058959,0.3594633,0.2545475,-0.382262021,0.1378421,0.348855644,0.06908204,-0.24765332,0.3396532,-0.007357411,0.314807326,-0.0463480949,-0.4947682,-0.11088068,0.360868156,0.282476068,-0.3572618,-0.273024321,-0.0426565222],[-0.3939186,0.249424651,-0.126726136,-0.0269371476,-0.174333766,-0.0695751458,-0.186137587,0.3220526,-0.09201736,0.4305696,-0.2771068,-0.4829117,0.09806061,-0.445984632,-0.114964493,0.153807431,-0.413848817,-0.341421127,-0.3996299,0.00525198,0.26400283,-0.132921234,0.07096427,-0.195321634,0.404917419],[0.226520613,-0.31486252,-0.04213503,-0.49540922,0.397633076,-0.05800147,-0.2241468,0.35310632,-0.0621992275,-0.378127545,0.435140252,0.05600507,-0.143919528,-0.05605467,0.1841675,-0.123805448,-0.49410525,-0.33321926,-0.158801869,0.14073652,-0.00266979425,-0.282587022,-0.118997678,0.123607136,0.233769432],[0.2788852,0.11226397,-0.437716484,0.214066237,0.186241925,0.2625535,-0.360988766,-0.4402259,0.0615267865,0.07951041,-0.2226052,0.3251246,0.3405233,0.0156396423,-0.01398103,0.4646313,-0.378186256,-0.337167472,0.420970351,-0.0246477835,-0.403120726,0.222812757,0.227245018,-0.09809676,-0.351435632],[0.255230844,-0.2805155,-0.23182565,0.18883656,-0.08136756,0.0283527244,0.275992364,0.311870754,-0.2370487,-0.383747727,0.3419966,-0.3183208,-0.339111984,0.2553596,-0.126786292,0.264352,-0.00496328855,0.309053361,0.371899128,-0.09869694,0.0284373015,-0.329708725,0.136484966,0.3260701,0.154692322],[-0.10705445,-0.464485556,-0.0347772241,-0.341765642,0.14434199,-0.444176733,0.37968874,0.179344133,0.06361725,0.431501955,0.0435401835,0.374034375,-0.139998376,-0.354734153,-0.4487806,0.0151317343,-0.493161947,0.07301673,-0.115588129,0.162173375,0.290933639,0.456469446,-0.0800768062,0.07383309,0.224591151],[0.113265693,0.394694179,0.350326,-0.488583654,0.100006342,0.09787354,0.0489496365,-0.0459575355,-0.480670333,-0.462245345,-0.0244487785,-0.210073814,0.164361179,0.122672431,-0.4301115,0.4155453,0.01133086,0.103938684,0.305874228,0.316153318,0.376117766,-0.368900567,0.166514069,0.319656849,0.367669523],[0.0121476026,0.125450969,-0.250331551,-0.340643346,0.37705496,-0.08141581,0.167462319,0.377415419,-0.0604007766,-0.456159323,-0.352887958,-0.454111725,0.150713548,0.4579757,-0.158486277,0.505924761,-0.05963531,-0.172751158,-0.362835169,0.075798206,-0.271112829,-0.156449154,0.434832722,-0.177279621,0.218201339],[-0.200269848,-0.164698109,0.08881805,0.2590849,0.334152132,-0.0264239982,-0.264494181,-0.42682758,-0.357782453,-0.413156122,0.482890546,-0.193775952,-0.221856728,-0.3347343,0.110007681,0.333172262,-0.109709583,-0.2668009,0.0500297546,0.437988371,0.396486819,0.3587142,0.154914558,-0.002849826,0.333973646],[-0.06047832,0.342714369,0.0633372,-0.2593777,0.146259144,-0.3108905,0.1567164,0.405831635,-0.0471685231,0.08921517,-0.422126949,-0.460487932,-0.348044783,0.0971191451,0.0876215249,0.381390423,0.488433063,0.0165900961,0.3840919,-0.153395414,0.168698743,-0.320231348,-0.350909919,-0.00162506441,0.227869347],[0.334756434,-0.385933369,-0.1203026,-0.107543267,0.334854037,-0.08028563,0.219621152,-0.4016095,0.429767638,-0.100251459,0.160529584,0.21731244,0.305293381,0.0106519461,0.396865278,-0.14332962,-0.0941571,0.335401744,0.08462582,0.0406729542,0.298956841,-0.2584264,0.129869491,0.4864789,-0.432555437],[0.394244045,-0.147256643,0.273036659,-0.357048631,-0.346392483,-0.232658222,0.17090258,-0.463107437,0.0152847674,0.291270733,-0.408310533,-0.225233436,0.0134789161,0.105162233,-0.3344396,-0.134030446,0.4378356,-0.284554,-0.290453643,0.423277825,-0.347109973,-0.329017222,-0.501392543,0.46686855,0.4787524]],"weightsDelta":[[0.0154445777,-0.0125731034,0.002486298,0.0118059861,-0.007232599,0.0118474923,-0.0247175656,0.0227782726,-0.00165089068,0.0075371596,-0.0165222716,-0.0161244012,0.006596201,-0.00338234287,0.00496450067,-0.0143195568,0.00362829538,0.00135792361,-0.0225458536,-0.004883956,-0.00247842283,-0.002893452,0.01579629,0.0162567813,0.0161046572],[0.0239637289,-0.0195083637,0.00385772786,0.01831811,-0.0112220645,0.01838251,-0.03835165,0.0353426524,-0.0025615138,0.0116946194,-0.0256358739,-0.0250185411,0.0102346325,-0.005248026,0.00770289451,-0.0222181529,0.00562964473,0.00210694759,-0.0349820331,-0.00757792173,-0.00384550844,-0.00448946562,0.0245094467,0.0252239387,0.0249879062],[-0.0209671371,0.017068902,-0.00337533047,-0.0160274841,0.009818779,-0.0160838328,0.03355589,-0.0309231617,0.00224120426,-0.0102322428,0.0224301852,0.0218900479,-0.008954823,0.00459177652,-0.006739671,0.01943984,-0.00492567476,-0.00184348,0.030607637,0.00663032569,0.00336463912,0.003928072,-0.021444615,-0.0220697615,-0.0218632426],[-0.05784426,0.0470897853,-0.009311881,-0.04421672,0.0270881038,-0.0443721674,0.09257419,-0.0853109956,0.006183047,-0.02822877,0.0618805252,0.06039039,-0.0247046165,0.0126678189,-0.0185934417,0.0536307432,-0.01358898,-0.005085803,0.08444052,0.01829178,0.009282386,0.0108367866,-0.0591615252,-0.0608861856,-0.06031644],[-0.0270348489,0.0220085,-0.00435212255,-0.0206657033,0.012660251,-0.0207383577,0.0432666838,-0.03987206,0.00288978987,-0.013193367,0.0289212912,0.0282248426,-0.0115462728,0.005920598,-0.008690075,0.0250655655,-0.00635112356,-0.00237696758,0.03946523,0.008549086,0.00433833757,0.00506482227,-0.0276505053,-0.028456565,-0.0281902812],[-0.00119462435,0.000972518348,-0.000192312946,-0.0009131825,0.000559435051,-0.00091639295,0.00191188161,-0.00176187907,0.000127694919,-0.000582992565,0.001277983,0.0012472081,-0.0005102103,0.0002616212,-0.0003839997,0.00110760494,-0.0002806454,-0.000105034182,0.00174390175,0.00037776964,0.000191703788,0.000223805939,-0.00122182909,-0.00125744753,-0.00124568085],[0.00762044825,-0.00620364537,0.00122675451,0.005825145,-0.003568608,0.00584562449,-0.0121957967,0.0112389373,-0.000814559462,0.00371888024,-0.008152189,-0.007955877,0.00325460546,-0.00166886835,0.00244951481,-0.00706535624,0.00179022283,0.0006700077,-0.0111242607,-0.00240977341,-0.0012228688,-0.00142764673,0.007793986,0.008021194,0.00794613548],[0.016753085,-0.0136383316,0.00269694417,0.0128062218,-0.00784536451,0.0128512438,-0.0268117059,0.02470811,-0.00179075869,0.008175729,-0.0179220848,-0.0174905043,0.007155049,-0.003668904,0.005385107,-0.01553275,0.003935694,0.00147297059,-0.0244560018,-0.005297738,-0.00268840161,-0.0031385934,0.0171345975,0.0176341,0.0174690876],[0.0128825614,-0.0104874205,0.0020738598,0.009847556,-0.006032823,0.009882177,-0.0206173044,0.01899971,-0.00137703354,0.006286862,-0.0137814833,-0.013449613,0.00550199347,-0.00282126456,0.004140967,-0.0119441645,0.00302641746,0.00113266509,-0.0188058466,-0.00407378376,-0.002067291,-0.00241347332,0.0131759318,0.0135600325,0.0134331444],[-0.0429179668,0.0349386074,-0.006909018,-0.0328069143,0.020098215,-0.032922253,0.06868609,-0.06329711,0.0045875567,-0.02094454,0.0459127,0.0448070876,-0.01832977,0.00939898,-0.01379554,0.0397917181,-0.0100824423,-0.00377344852,0.0626512542,0.0135717187,0.00688713323,0.008040432,-0.0438953228,-0.0451749451,-0.04475222],[0.03247818,-0.0264397971,0.0052284007,0.0248266384,-0.0152093284,0.02491392,-0.05197821,0.0479001,-0.00347163435,0.015849784,-0.03474445,-0.03390777,0.013871056,-0.00711268,0.0104397768,-0.03011239,0.00762989,0.002855558,-0.0474113524,-0.0102704009,-0.00521183945,-0.0060845986,0.0332177952,0.03418615,0.0338662528],[-0.008921897,0.00726312725,-0.00143626437,-0.00681998534,0.0041780686,-0.00684396224,0.014278641,-0.0131583661,0.000953673036,-0.00435400475,0.009544451,0.00931461249,-0.00381043949,0.001953884,-0.002867852,0.008272004,-0.002095964,-0.0007844342,0.0130241048,0.00282132369,0.001431715,0.0016714657,-0.00912507251,-0.009391084,-0.009303207],[-0.0678451,0.05523126,-0.0109218359,-0.0518614575,0.0317714363,-0.0520437844,0.108579576,-0.100060627,0.00725204963,-0.03310931,0.072579205,0.07083143,-0.02897586,0.01485799,-0.02180811,0.0629031,-0.0159384124,-0.0059651006,0.09903966,0.0214542933,0.010887241,0.012710386,-0.06939011,-0.07141295,-0.0707447],[-0.0398966074,0.03247898,-0.00642263331,-0.0304973572,0.0186833311,-0.0306045748,0.06385069,-0.05884109,0.00426459964,-0.0194700751,0.0426805168,0.0416527353,-0.017039381,0.008737306,-0.0128243547,0.03699044,-0.009372653,-0.00350780343,0.0582407042,0.0126162907,0.00640228949,0.00747439824,-0.0408051573,-0.0419947,-0.0416017324],[0.0174833573,-0.0142328311,0.002814505,0.01336445,-0.008187347,0.0134114353,-0.0279804375,0.0257851463,-0.00186881865,0.00853211153,-0.0187033154,-0.0182529222,0.00746694067,-0.003828833,0.005619846,-0.0162098277,0.00410725269,0.001537178,-0.0255220477,-0.005528669,-0.00280559,-0.00327540585,0.0178815,0.0184027776,0.0182305723],[0.06258602,-0.0509499535,0.010075219,0.0478413664,-0.0293086413,0.04800956,-0.100162923,0.092304334,-0.0066899,0.0305428114,-0.06695316,-0.06534087,0.0267297681,-0.0137062585,0.020117633,-0.0580271035,0.014702931,0.00550271,-0.0913625062,-0.0197912417,-0.0100433063,-0.0117251277,0.06401127,0.06587731,0.06526086],[-0.0156211294,0.01271683,-0.00251471973,-0.011940944,0.007315277,-0.0119829243,0.02500012,-0.0230386574,0.00166976254,-0.007623319,0.0167111438,0.0163087249,-0.00667160423,0.00342100742,-0.00502125127,0.0144832479,-0.00366977137,-0.00137344643,0.0228035823,0.004939786,0.00250675436,0.002926528,-0.015976863,-0.0164426174,-0.0162887555],[0.030952869,-0.0251980741,0.004982853,0.0236606766,-0.0144950347,0.0237438586,-0.0495371,0.045650512,-0.003308592,0.0151054123,-0.0331127048,-0.03231532,0.0132196136,-0.006778639,0.009949482,-0.0286981873,0.00727155851,0.00272144913,-0.0451847166,-0.00978806,-0.00496706972,-0.00579884043,0.0316577479,0.0325806253,0.03227575],[-0.02329977,0.01896785,-0.00375084253,-0.0178105738,0.0109111369,-0.0178731885,0.03728905,-0.0343634225,0.0024905426,-0.0113705993,0.0249255858,0.0243253578,-0.009951063,0.00510262,-0.007489472,0.02160256,-0.00547366543,-0.00204857066,0.0340127945,0.007367962,0.00373896165,0.00436507724,-0.02383037,-0.024525065,-0.02429557],[-0.0359129,0.029235933,-0.005781329,-0.0274521746,0.0168177877,-0.0275486857,0.0574751571,-0.052965764,0.00383877615,-0.0175259747,0.0384188369,0.03749368,-0.0153379869,0.007864879,-0.0115438337,0.03329692,-0.008436787,-0.00315754674,0.05242533,0.0113565447,0.00576301664,0.006728074,-0.0367307328,-0.0378014967,-0.03744777],[0.0471010767,-0.03834399,0.007582423,0.0360045247,-0.0220571384,0.0361311026,-0.07538076,0.0694665238,-0.00503469445,0.022985952,-0.0503877029,-0.0491743237,0.0201163255,-0.0103150755,0.0151401572,-0.0436701179,0.0110651525,0.00414123759,-0.06875772,-0.0148945209,-0.0075584054,-0.008824114,0.0481736921,0.0495780371,0.04911411],[-0.0430198275,0.03502153,-0.00692541571,-0.0328847766,0.0201459154,-0.0330003873,0.06884911,-0.06344734,0.004598445,-0.02099425,0.04602167,0.04491343,-0.0183732715,0.009421287,-0.0138282813,0.039886158,-0.0101063717,-0.00378240435,0.06279995,0.0136039294,0.00690347934,0.008059516,-0.0439995043,-0.0452821627,-0.0448584333],[0.04499609,-0.0366303623,0.0072435583,0.0343954526,-0.0210713875,0.0345163755,-0.0720119253,0.06636201,-0.00480968971,0.021958692,-0.0481358357,-0.04697668,0.0192173123,-0.009854087,0.0144635309,-0.0417184643,0.0105706425,0.003956162,-0.0656848848,-0.014228873,-0.00722061424,-0.008429756,0.0460207723,0.0473623537,0.04691916],[0.0135563165,-0.01103591,0.00218232232,0.0103625813,-0.006348338,0.0103990128,-0.0216955841,0.01999339,-0.00144905213,0.006615663,-0.0145022515,-0.0141530251,0.00578974653,-0.002968816,0.00435753865,-0.0125688417,0.00318469829,0.00119190325,-0.0197893884,-0.00428684149,-0.00217540981,-0.00253969734,0.0138650294,0.01426922,0.0141356951],[0.0304831676,-0.0248157009,0.00490723969,0.0233016312,-0.0142750768,0.0233835522,-0.04878539,0.04495778,-0.003258385,0.0148761924,-0.0326102264,-0.0318249464,0.0130190095,-0.0066757747,0.009798501,-0.028262699,0.00716121448,0.00268015172,-0.04449905,-0.009639529,-0.004891696,-0.005710845,0.03117735,0.0320862234,0.0317859761]],"outputs":[-0.7917788,-0.439371675,0.137843072,0.420342624,0.796057463,-0.763286352,-0.260428756,-0.479124635,0.6035134,-0.479943663,-0.736705542,0.947415054,0.17053844,-0.157899946,0.770413339,0.2745794,-0.4888497,0.10981334,-0.503837347,-0.358985066,0.398524135,-0.454086661,-0.2601731,-0.34305352,0.5325348],"gamma":[0.0282783285,0.0438765138,-0.0383898877,-0.105910242,-0.0494995974,-0.0021873035,0.0139526986,0.0306741465,0.0235873926,-0.07858087,0.05946609,-0.0163355935,-0.124221332,-0.0730489,0.0320112444,0.114592195,-0.0286015868,0.0566733144,-0.0426608361,-0.06575491,0.08623996,-0.0787673742,0.08238582,0.0248210076,0.0558133125],"error":[0.0,0.0,0.0,0.0,0.0,0.0,0.0,0.0,0.0,0.0,0.0,0.0,0.0,0.0,0.0,0.0,0.0,0.0,0.0,0.0,0.0,0.0,0.0,0.0,0.0]},{"numberOfInputs":25,"numberOfOutputs":1,"inputs":[-0.7917788,-0.439371675,0.137843072,0.420342624,0.796057463,-0.763286352,-0.260428756,-0.479124635,0.6035134,-0.479943663,-0.736705542,0.947415054,0.17053844,-0.157899946,0.770413339,0.2745794,-0.4888497,0.10981334,-0.503837347,-0.358985066,0.398524135,-0.454086661,-0.2601731,-0.34305352,0.5325348],"weights":[[-0.27325654,-0.196019918,0.141084448,0.4635639,0.4871618,0.0186779462,-0.0540266074,-0.143645912,-0.133562639,0.367976,-0.468734026,0.574775338,0.4610594,0.270061463,-0.283714741,-0.4468744,0.135341376,-0.206765667,0.205988526,0.2720181,-0.369713753,0.357757241,-0.3184984,-0.101482116,-0.280831724]],"weightsDelta":[[0.21962364,0.121778622,-0.0381702073,-0.116479591,-0.220830113,0.211762324,0.0722755,0.132930353,-0.1674351,0.133207813,0.204343438,-0.26282987,-0.0470451377,0.0440216959,-0.2137505,-0.07640925,0.135636955,-0.03060936,0.139821857,0.0996451452,-0.110785365,0.126125053,0.07203324,0.09512532,-0.1478497]],"outputs":[0.5840751],"gamma":[-0.277431],"error":[-0.418886065]}]}